Language model created by QuickLM on Thu Mar 29 06:12:29 EDT 2018
Copyright (c) 1996-2010 Carnegie Mellon University and Alexander I. Rudnicky

The model is in standard ARPA format, designed by Doug Paul while he was at MITRE.

The code that was used to produce this language model is available in Open Source.
Please visit http://www.speech.cs.cmu.edu/tools/ for more information

The (fixed) discount mass is 0.5. The backoffs are computed using the ratio method.
This model based on a corpus of 6 sentences and 9 words

\data\
ngram 1=9
ngram 2=13
ngram 3=7

\1-grams:
-0.8016 </s> -0.3010
-0.8016 <s> -0.2264
-1.5798 BREW -0.2264
-1.5798 IRON -0.2894
-1.5798 JUICE -0.2264
-1.5798 MEDICINE -0.2264
-1.5798 NO -0.2264
-1.5798 WATER -0.2264
-1.5798 YES -0.2264

\2-grams:
-1.0792 <s> IRON 0.0000
-1.0792 <s> JUICE 0.0000
-1.0792 <s> MEDICINE 0.0000
-1.0792 <s> NO 0.0000
-1.0792 <s> WATER 0.0000
-1.0792 <s> YES 0.0000
-0.3010 BREW </s> -0.3010
-0.3010 IRON BREW 0.0000
-0.3010 JUICE </s> -0.3010
-0.3010 MEDICINE </s> -0.3010
-0.3010 NO </s> -0.3010
-0.3010 WATER </s> -0.3010
-0.3010 YES </s> -0.3010

\3-grams:
-0.3010 <s> IRON BREW
-0.3010 <s> JUICE </s>
-0.3010 <s> MEDICINE </s>
-0.3010 <s> NO </s>
-0.3010 <s> WATER </s>
-0.3010 <s> YES </s>
-0.3010 IRON BREW </s>

\end\
