Language model created by QuickLM on Wed Apr  4 22:18:55 EDT 2018
Copyright (c) 1996-2010 Carnegie Mellon University and Alexander I. Rudnicky

The model is in standard ARPA format, designed by Doug Paul while he was at MITRE.

The code that was used to produce this language model is available in Open Source.
Please visit http://www.speech.cs.cmu.edu/tools/ for more information

The (fixed) discount mass is 0.5. The backoffs are computed using the ratio method.
This model based on a corpus of 5 sentences and 7 words

\data\
ngram 1=7
ngram 2=10
ngram 3=5

\1-grams:
-0.7782 </s> -0.3010
-0.7782 <s> -0.2218
-1.4771 CIDER -0.2218
-1.4771 MEDICINE -0.2218
-1.4771 NO -0.2218
-1.4771 OK -0.2218
-1.4771 WATER -0.2218

\2-grams:
-1.0000 <s> CIDER 0.0000
-1.0000 <s> MEDICINE 0.0000
-1.0000 <s> NO 0.0000
-1.0000 <s> OK 0.0000
-1.0000 <s> WATER 0.0000
-0.3010 CIDER </s> -0.3010
-0.3010 MEDICINE </s> -0.3010
-0.3010 NO </s> -0.3010
-0.3010 OK </s> -0.3010
-0.3010 WATER </s> -0.3010

\3-grams:
-0.3010 <s> CIDER </s>
-0.3010 <s> MEDICINE </s>
-0.3010 <s> NO </s>
-0.3010 <s> OK </s>
-0.3010 <s> WATER </s>

\end\